/*!
 * The following copyright notice may not be removed under any circumstances.
 * 
 * Copyright:
 * Generated in 2010 by FontLab Studio. Copyright info pending.
 */
Cufon.registerFont({"w":1083,"face":{"font-family":"TitilliumText22L","font-weight":500,"font-stretch":"normal","units-per-em":"2048","panose-1":"0 0 0 0 0 0 0 0 0 0","ascent":"1536","descent":"-512","x-height":"22","bbox":"-94 -1962 1919.1 492","underline-thickness":"102","underline-position":"-102","unicode-range":"U+0020-U+00FF"},"glyphs":{" ":{"w":479},"!":{"d":"451,0r0,-270r208,0r0,270r-208,0xm451,-1434r208,0r-6,940r-196,0"},"\"":{"d":"82,-1421r186,0r-6,471r-178,0xm403,-1421r187,0r-6,471r-178,0","w":663},"#":{"d":"12,-358r0,-164r215,0r0,-316r-215,0r0,-163r215,0r0,-359r172,0r0,359r283,0r0,-359r172,0r0,359r217,0r0,163r-217,0r0,316r217,0r0,164r-217,0r0,358r-172,0r0,-358r-283,0r0,358r-172,0r0,-358r-215,0xm399,-522r283,0r0,-316r-283,0r0,316"},"$":{"d":"999,-401v0,291,-177,424,-471,421r-30,238v-81,-4,-121,-9,-121,-14r29,-232v-103,-9,-200,-22,-291,-39r20,-176v105,15,203,25,295,31r57,-455v-143,-34,-246,-80,-309,-139v-60,-56,-90,-144,-90,-264v1,-276,201,-397,502,-387r28,-213r121,0r-28,223r260,37r-15,176v-51,-7,-141,-16,-270,-29r-55,437v138,39,234,84,287,135v55,52,81,135,81,250xm285,-1034v4,157,85,170,227,217r53,-412v-184,-2,-284,63,-280,195xm553,-168v163,-4,252,-64,252,-227v0,-140,-69,-161,-199,-203"},"%":{"d":"25,-1149v0,-191,80,-287,241,-287v160,0,240,96,240,287v0,195,-80,293,-240,293v-161,0,-241,-98,-241,-293xm266,-1313v-89,0,-92,62,-92,164v0,101,5,168,92,168v82,0,90,-77,90,-168v0,-96,-5,-164,-90,-164xm182,-78r637,-1349r111,63r-639,1350xm596,-295v0,-193,81,-289,242,-289v160,0,239,96,239,289v0,195,-80,293,-239,293v-161,0,-242,-98,-242,-293xm838,-459v-89,0,-93,62,-93,164v0,99,5,168,93,168v87,0,90,-69,90,-168v0,-102,-4,-164,-90,-164"},"&":{"d":"569,35v-306,4,-483,-154,-483,-449v0,-235,121,-335,305,-415v-73,-98,-104,-141,-104,-297v0,-203,155,-320,375,-320v237,0,374,109,376,334v0,93,-22,168,-67,225v-45,56,-123,115,-232,178r250,250v25,-78,43,-165,55,-262r189,4v-21,151,-52,278,-94,381r252,240r-117,133r-234,-217v-132,143,-228,212,-471,215xm285,-416v1,175,105,274,290,271v168,-3,229,-55,320,-156r-383,-393v-151,57,-227,149,-227,278xm481,-1102v0,109,67,208,137,271v82,-41,140,-80,173,-117v34,-38,51,-87,51,-146v0,-115,-60,-172,-180,-172v-120,0,-181,55,-181,164","w":1431},"'":{"d":"0,-1419r190,0r-10,479r-176,0","w":202},"(":{"d":"459,-1536v-77,203,-189,631,-195,920v-4,229,75,563,195,872r-209,0v-86,-190,-199,-583,-199,-872v0,-298,110,-697,199,-920r209,0","w":530},")":{"d":"51,256v88,-235,72,-191,142,-485v74,-307,71,-491,4,-803v-46,-214,-88,-337,-146,-504r209,0v85,196,199,608,199,899v0,306,-106,670,-199,893r-209,0","w":530},"*":{"d":"240,-938r219,-162r-213,-155r71,-99r213,152r84,-250r119,39r-82,256r262,0r0,119r-264,0r82,254r-117,34r-84,-256r-217,162"},"+":{"d":"-20,-475r0,-176r421,0r0,-422r181,0r0,422r426,0r0,176r-426,0r0,426r-181,0r0,-426r-421,0","w":985},",":{"d":"31,252r98,-492r211,0r-117,492r-192,0","w":346},"-":{"d":"135,-481r0,-189r631,0r0,189r-631,0","w":899},".":{"d":"135,0r0,-270r211,0r0,270r-211,0","w":505},"\/":{"d":"158,-35r575,-1425r185,65r-576,1426"},"0":{"d":"37,-659v0,-258,42,-442,127,-551v85,-109,210,-164,377,-164v171,0,298,54,381,162v83,108,125,292,125,553v0,246,-42,421,-127,526v-83,104,-210,156,-379,156v-167,0,-292,-51,-377,-154v-85,-103,-127,-279,-127,-528xm318,-1071v-82,118,-90,681,1,801v49,65,119,102,224,102v104,0,173,-38,223,-104v88,-116,82,-686,2,-799v-51,-72,-121,-113,-226,-113v-105,0,-174,41,-224,113"},"1":{"d":"109,-1063r432,-289r186,0r0,1352r-199,0r0,-1122r-327,217"},"2":{"d":"518,-1374v279,0,430,103,432,370v0,96,-19,181,-61,252v-95,163,-361,403,-510,562r602,0r0,190r-868,0r0,-182r354,-363v81,-86,175,-173,238,-286v27,-51,41,-100,40,-148v-3,-154,-102,-199,-270,-199v-124,0,-221,17,-338,39r-14,-182v139,-35,271,-53,395,-53"},"3":{"d":"995,-393v0,290,-148,416,-446,416v-139,-1,-290,-17,-451,-50r23,-180v149,25,283,37,403,37v177,0,266,-74,267,-217v0,-135,-84,-211,-252,-211r-273,0r0,-182r273,0v104,2,224,-101,221,-209v-4,-150,-95,-191,-252,-193v-126,-1,-286,18,-369,33r-20,-176v145,-33,278,-49,399,-49v301,2,447,82,447,358v0,99,-31,180,-99,234v-54,43,-32,23,-88,65v146,64,217,124,217,324"},"4":{"d":"53,-233r0,-164r371,-955r219,0r-362,928r405,0r0,-424r199,0r0,424r155,0r0,191r-155,0r0,245r-199,0r0,-245r-633,0"},"5":{"d":"1006,-444v1,296,-167,466,-457,464v-135,0,-288,-20,-459,-59r23,-180v168,33,311,49,430,49v160,1,258,-101,258,-264v0,-155,-85,-234,-254,-234v-95,0,-215,31,-277,64r-157,-33r43,-717r800,0r0,193r-620,0r-35,370v98,-42,186,-63,264,-63v289,1,440,122,441,410"},"6":{"d":"1036,-428v0,294,-179,452,-481,451v-329,-1,-494,-234,-494,-701v0,-246,46,-423,139,-532v93,-109,227,-164,400,-164v109,0,237,12,383,35r-18,182v-124,-18,-246,-27,-365,-27v-232,0,-336,151,-334,402v89,-32,207,-70,312,-70v306,0,459,141,458,424xm264,-608v1,295,98,442,291,442v183,0,274,-87,274,-262v0,-161,-89,-242,-266,-242v-95,0,-195,25,-299,62"},"7":{"d":"109,-1161r0,-193r847,0r0,248r-512,1135r-186,-56r494,-1087r0,-47r-643,0"},"8":{"d":"1063,-367v0,294,-214,390,-514,390v-339,0,-508,-122,-508,-367v0,-211,82,-270,213,-358v-126,-82,-191,-137,-191,-318v0,-249,214,-354,486,-354v269,0,493,107,493,356v0,189,-66,235,-200,316v75,42,131,87,168,135v35,45,53,112,53,200xm850,-391v0,-134,-90,-176,-201,-215r-205,0v-125,39,-188,113,-188,221v0,145,98,217,293,217v201,0,301,-74,301,-223xm551,-1184v-163,0,-275,42,-275,193v0,121,66,168,168,209r205,0v102,-41,178,-89,178,-209v0,-151,-111,-193,-276,-193"},"9":{"d":"57,-924v0,-284,190,-450,478,-450v332,0,498,233,497,698v0,254,-48,431,-137,539v-117,142,-334,179,-578,151v-63,-7,-114,-12,-153,-18r-58,-10r19,-179v124,18,245,27,364,27v223,0,336,-133,338,-399r-51,14v-70,24,-192,48,-268,49v-301,0,-451,-141,-451,-422xm535,-1188v-167,-2,-274,98,-273,264v0,160,87,240,262,240v90,0,248,-37,305,-61v-3,-234,-75,-441,-294,-443"},":":{"d":"106,0r0,-270r209,0r0,270r-209,0xm106,-637r0,-270r209,0r0,270r-209,0","w":395},";":{"d":"35,240r110,-504r211,0r-141,504r-180,0xm131,-637r0,-270r209,0r0,270r-209,0","w":434},"<":{"d":"840,-115v-70,-33,-636,-380,-711,-417r0,-201r711,-412r0,205r-523,303r523,318r0,204"},"=":{"d":"59,-285r0,-178r949,0r0,178r-949,0xm59,-690r0,-178r949,0r0,178r-949,0"},">":{"d":"129,-115r0,-204r522,-318r-522,-303r0,-205r711,412r0,201v-59,29,-635,382,-711,417"},"?":{"d":"590,-1063v-2,-157,-74,-194,-238,-194v-71,0,-175,15,-313,45r-25,-189v154,-38,269,-57,346,-57v289,2,441,91,441,373v0,208,-124,311,-246,407v-52,41,-131,103,-135,186r0,78r-205,0v-2,-91,1,-162,39,-221v83,-128,216,-176,297,-301v25,-39,39,-80,39,-127xm213,0r0,-270r209,0r0,270r-209,0","w":788},"@":{"d":"295,-535v0,555,192,761,737,768r293,-20r8,186v-588,72,-1043,-31,-1175,-473v-38,-128,-60,-281,-60,-461v0,-633,311,-950,934,-950v616,0,893,285,887,895v-4,341,-43,614,-371,610v-127,-2,-196,-21,-248,-104v-134,68,-248,102,-342,102v-289,-1,-371,-215,-368,-514v4,-340,81,-543,407,-546v55,0,129,16,224,49r0,-31r192,0r0,410v0,143,3,246,12,307v15,103,26,143,123,143v105,0,126,-38,152,-147v17,-71,24,-193,22,-316v-4,-483,-202,-671,-690,-671v-508,0,-737,247,-737,763xm1034,-860v-223,0,-248,118,-248,366v0,124,17,209,50,254v34,47,80,70,137,70v74,0,162,-23,264,-68v-22,-131,-15,-408,-16,-587v-78,-23,-140,-35,-187,-35","w":2015},"A":{"d":"53,0r365,-1421r407,0r361,1419r-201,0r-92,-317r-553,0r-88,319r-199,0xm383,-510r469,0r-182,-727r-101,0","w":1236},"B":{"d":"946,-729v141,56,211,137,211,330v0,266,-148,399,-444,399r-543,0r0,-1421r522,0v284,0,426,118,426,354v0,185,-48,273,-172,338xm705,-184v159,-3,247,-63,247,-230v0,-142,-85,-213,-254,-213r-331,0r0,443r338,0xm915,-1036v-1,-147,-80,-200,-231,-201r-317,0r0,430r327,0v147,0,221,-76,221,-229","w":1255},"C":{"d":"96,-709v0,-262,39,-449,113,-563v99,-154,331,-197,592,-158v64,10,116,17,155,25r60,12r-6,179v-159,-23,-280,-35,-365,-35v-138,0,-225,43,-275,119v-85,129,-85,709,1,839v50,76,138,119,278,119v75,0,196,-12,361,-35r6,180v-334,76,-691,89,-819,-139v-82,-146,-101,-309,-101,-543","w":1093},"D":{"d":"662,-1421v432,2,546,245,546,686v0,228,-27,385,-106,528v-76,139,-223,207,-440,207r-492,0r0,-1421r492,0xm367,-188v164,-7,361,21,469,-41v93,-54,139,-181,155,-293v27,-180,11,-479,-57,-586v-51,-80,-137,-125,-272,-125r-295,0r0,1045","w":1302},"E":{"d":"170,0r0,-1421r874,0r0,190r-677,0r0,426r555,0r0,187r-555,0r0,428r677,0r0,190r-874,0","w":1146},"F":{"d":"170,0r0,-1421r874,0r0,190r-677,0r0,504r555,0r0,188r-555,0r0,539r-197,0","w":1120},"G":{"d":"670,-170v99,0,172,-11,254,-23r0,-362r-199,0r0,-178r395,0r0,706v-195,33,-350,50,-465,50v-207,0,-352,-60,-434,-181v-82,-121,-123,-305,-123,-553v0,-253,41,-438,123,-557v81,-117,223,-176,428,-176v158,0,363,31,471,58r-8,174v-166,-25,-311,-37,-436,-37v-145,0,-238,44,-295,121v-99,133,-98,698,-4,835v54,79,147,123,293,123","w":1234},"H":{"d":"170,0r0,-1421r199,0r0,606r653,0r0,-606r201,0r0,1421r-201,0r0,-625r-653,0r0,625r-199,0","w":1390},"I":{"d":"164,0r0,-1421r198,0r0,1421r-198,0","w":524},"J":{"d":"469,-1421r2,1194v-2,148,-15,248,-100,309v-80,57,-161,61,-305,63r0,-184v172,-5,204,-29,204,-205r0,-1177r199,0","w":632},"K":{"d":"170,0r0,-1421r199,0r0,639r217,-13r317,-626r232,0r-371,710r389,711r-233,0r-330,-602r-221,12r0,590r-199,0","w":1216},"L":{"d":"170,0r0,-1421r199,0r0,1231r585,0r0,190r-784,0","w":1030},"M":{"d":"170,0r0,-1421r334,0r366,1138r369,-1138r330,0r0,1421r-199,0r0,-1180r-31,0r-364,1127r-211,0r-365,-1127r-30,0r0,1180r-199,0","w":1736},"N":{"d":"170,0r0,-1421r336,0r508,1179r41,0r0,-1179r198,0r0,1421r-327,0r-516,-1180r-41,0r0,1180r-199,0","w":1421},"O":{"d":"664,23v-452,0,-566,-251,-566,-725v0,-250,42,-436,125,-558v83,-123,230,-184,441,-184v452,0,567,270,567,742v0,254,-41,438,-123,553v-82,115,-230,172,-444,172xm664,-1251v-311,0,-361,207,-361,549v0,187,25,323,76,407v51,83,146,125,285,125v142,0,233,-43,286,-123v95,-143,94,-681,-2,-825v-57,-86,-146,-133,-284,-133","w":1327},"P":{"d":"1153,-952v0,318,-151,500,-467,499r-317,0r0,453r-199,0r0,-1421r516,0v311,0,467,156,467,469xm950,-952v-1,-191,-77,-279,-264,-279r-317,0r0,588r317,0v176,0,264,-103,264,-309","w":1228},"Q":{"d":"664,23v-452,0,-566,-251,-566,-725v0,-250,42,-436,125,-558v83,-123,230,-184,441,-184v452,0,567,270,567,742v0,308,-49,526,-225,643r170,278r-185,86r-182,-297v-48,9,-96,15,-145,15xm664,-1251v-311,0,-361,207,-361,549v0,187,25,323,76,407v51,83,146,125,285,125v142,0,233,-43,286,-123v95,-143,94,-681,-2,-825v-57,-86,-146,-133,-284,-133","w":1327},"R":{"d":"700,-1421v315,0,465,134,465,444v0,209,-80,346,-241,412r250,565r-220,0r-227,-512r-358,0r0,512r-199,0r0,-1421r530,0xm369,-700r333,0v172,0,258,-91,259,-273v0,-173,-87,-260,-261,-260r-331,0r0,533","w":1267},"S":{"d":"537,-172v179,-2,272,-57,274,-231v0,-64,-20,-113,-61,-144v-40,-31,-118,-59,-232,-86v-161,-37,-275,-83,-340,-141v-65,-58,-98,-150,-98,-277v0,-277,192,-395,479,-395v101,0,242,16,422,47r-16,180v-197,-23,-332,-34,-406,-34v-186,0,-279,66,-278,198v0,74,21,125,65,154v44,29,131,58,260,90v150,37,255,84,316,139v59,53,88,141,88,262v0,360,-280,469,-648,418v-100,-14,-161,-18,-182,-22r-74,-13r21,-180v181,23,318,35,410,35","w":1087},"T":{"d":"-12,-1231r0,-190r1024,0r0,190r-410,0r0,1231r-201,0r0,-1231r-413,0","w":997},"U":{"d":"651,18v-328,0,-504,-134,-504,-460r0,-979r199,0r0,979v0,196,110,266,305,266v198,0,312,-70,312,-266r0,-979r200,0r0,979v1,334,-181,460,-512,460","w":1308},"V":{"d":"53,-1421r207,0r303,1231r103,0r301,-1231r207,0r-355,1421r-409,0","w":1224},"W":{"d":"66,-1421r206,0r246,1218r49,0r256,-1210r226,0r258,1210r49,0r241,-1218r207,0r-307,1421r-330,0r-233,-1124r-225,1124r-332,0","w":1867},"X":{"d":"51,0r414,-705r-414,-716r223,0r322,563r319,-563r224,0r-408,716r408,705r-224,0r-319,-555r-322,555r-223,0","w":1187},"Y":{"d":"33,-1421r221,0r319,590r316,-590r223,0r-438,813r0,608r-199,0r0,-608","w":1142},"Z":{"d":"123,0r0,-219r674,-973r0,-39r-674,0r0,-190r921,0r0,221r-673,973r0,37r673,0r0,190r-921,0","w":1165},"[":{"d":"74,-1534r461,0r0,188r-263,0r0,1409r263,0r0,189r-459,0","w":612},"\\":{"d":"121,-1378r213,-95r635,1428r-211,90","w":1105},"]":{"d":"74,63r262,0r0,-1409r-262,0r0,-188r461,0r-3,1786r-458,0r0,-189","w":612},"^":{"d":"74,-657r362,-695r203,0r371,695r-207,0r-262,-502r-262,502r-205,0"},"_":{"d":"55,10r877,0r0,176r-877,0r0,-176","w":1062},"`":{"d":"-14,-1380r63,-172r473,192r-57,152","w":503},"a":{"d":"381,23v-189,1,-289,-129,-287,-322v2,-219,114,-288,328,-307r287,-25r0,-74v0,-104,-51,-156,-152,-155v-116,0,-288,13,-393,24r-8,-168v175,-27,312,-41,411,-40v230,2,336,103,336,337r0,463v2,68,41,90,101,99r-7,165v-131,-2,-188,-12,-260,-73v-117,51,-236,76,-356,76xm291,-303v0,105,42,158,125,158v89,0,186,-17,293,-52r0,-282r-265,20v-102,9,-153,61,-153,156","w":1071},"b":{"d":"1020,-526v0,406,-99,549,-494,549v-76,0,-196,-8,-360,-25r0,-1456r192,0r0,475v98,-41,190,-61,275,-61v313,0,387,170,387,518xm526,-154v259,-5,295,-104,295,-372v0,-124,-18,-210,-49,-262v-48,-81,-161,-90,-276,-66v-61,13,-95,19,-101,20r-37,11r0,659v89,7,145,10,168,10","w":1110},"c":{"d":"516,23v-353,0,-424,-172,-424,-549v0,-344,98,-518,428,-518v96,0,233,22,295,32r-8,168v-109,-12,-189,-18,-240,-18v-233,0,-278,92,-278,336v0,272,27,356,280,364r240,-16r6,168v-130,22,-230,33,-299,33","w":890},"d":{"d":"92,-512v0,-345,103,-532,426,-532v75,0,161,14,242,24r0,-414r192,0r0,1434r-192,0r0,-59v-192,110,-450,115,-574,-39v-64,-78,-94,-217,-94,-414xm530,-870v-200,6,-241,137,-241,360v0,133,17,224,53,274v89,123,268,76,418,19r0,-633v-51,-9,-179,-21,-230,-20","w":1116},"e":{"d":"510,23v-326,0,-418,-184,-418,-527v0,-361,145,-542,436,-540v300,2,424,160,424,473r-12,141r-651,0v1,185,66,274,248,274v107,0,232,-6,376,-18r5,154v-155,29,-291,43,-408,43xm760,-582v-2,-199,-48,-290,-232,-290v-181,0,-235,98,-241,290r473,0","w":1036},"f":{"d":"500,-1305v-122,0,-130,68,-133,205r0,78r280,0r0,174r-280,0r0,848r-195,0r0,-848r-123,0r0,-174r123,0r0,-80v6,-262,43,-370,285,-377r215,19r-2,160v-95,-3,-152,-5,-170,-5","w":688},"g":{"d":"547,492v-294,0,-459,-45,-459,-314v0,-139,64,-173,158,-254v-54,-34,-85,-126,-45,-205v17,-33,36,-70,55,-102v-104,-55,-156,-157,-156,-307v0,-324,300,-403,611,-328r303,-6r0,160r-166,0v35,44,53,102,53,174v-2,277,-126,346,-407,350v-37,0,-68,-3,-95,-8v-21,53,-30,89,-30,106v0,35,12,59,37,70v23,10,88,14,194,14v291,0,412,33,412,303v0,231,-155,347,-465,347xm375,0v-53,47,-94,72,-94,160v0,139,98,157,268,157v152,0,266,-26,266,-161v0,-146,-71,-138,-231,-146xm498,-879v-138,0,-202,51,-203,189v0,137,63,186,199,186v150,0,215,-40,215,-186v0,-151,-54,-189,-211,-189","w":1071},"h":{"d":"653,-1044v309,0,351,169,351,509r0,535r-193,0r0,-532v0,-123,-12,-209,-37,-258v-25,-49,-77,-74,-156,-74v-73,0,-159,16,-260,47r0,817r-192,0r0,-1475r192,0r0,494v109,-42,208,-63,295,-63","w":1150},"i":{"d":"156,0r0,-1022r194,0r0,1022r-194,0xm156,-1221r0,-215r194,0r0,215r-194,0","w":503},"j":{"d":"-66,322v101,-57,166,-106,195,-146v30,-41,45,-103,45,-188r0,-1010r195,0r0,1012v0,131,-23,228,-70,291v-48,64,-142,131,-281,202xm174,-1233r0,-213r195,0r0,213r-195,0","w":522},"k":{"d":"166,0r0,-1458r192,0r0,840r140,-13r270,-391r219,0r-315,475r323,547r-219,0r-274,-442r-144,12r0,430r-192,0","w":1030},"l":{"d":"160,0r0,-1458r194,0r0,1458r-194,0","w":512},"m":{"d":"1257,-1044v312,0,351,163,351,509r0,535r-193,0v-5,-233,22,-636,-33,-784v-49,-132,-321,-72,-415,-17v13,33,20,123,20,271r0,530r-192,0r0,-526v0,-133,-12,-222,-35,-267v-25,-48,-77,-72,-158,-71v-74,0,-155,20,-244,61r0,803r-192,0r0,-1022r190,0r0,61v143,-87,424,-125,537,7v155,-60,277,-90,364,-90","w":1755},"n":{"d":"653,-1044v311,8,353,168,353,509r0,535r-195,0r0,-532v0,-123,-12,-209,-37,-258v-25,-49,-76,-74,-153,-74v-75,0,-163,20,-263,61r0,803r-192,0r0,-1022r192,0r0,59v111,-55,209,-83,295,-81","w":1157},"o":{"d":"543,-1044v330,0,446,188,446,524v0,354,-94,542,-446,542v-353,0,-451,-187,-451,-542v0,-348,113,-524,451,-524xm543,-870v-214,0,-254,118,-254,350v0,248,25,366,253,366v224,0,251,-128,251,-366v0,-222,-50,-350,-250,-350","w":1079},"p":{"d":"1022,-522v0,382,-96,545,-453,545v-69,0,-140,-8,-211,-23r0,446r-192,0r0,-1468r192,0r0,61v97,-56,190,-85,281,-83v300,6,383,189,383,522xm823,-524v0,-209,-43,-344,-217,-344v-83,0,-190,38,-248,67r0,631v105,11,172,16,199,16v230,-6,266,-119,266,-370","w":1112},"q":{"d":"520,23v-317,-1,-428,-193,-428,-519v0,-356,116,-569,467,-548r375,22r0,1471r-193,0r0,-474v-59,31,-132,47,-221,48xm559,-870v-222,0,-272,129,-272,372v0,205,48,344,233,344v74,0,148,-18,221,-53r0,-655v-73,-5,-133,-8,-182,-8","w":1097},"r":{"d":"166,0r0,-1022r192,0r0,121v98,-73,209,-121,334,-146r0,205v-125,25,-237,66,-334,125r0,717r-192,0","w":731},"s":{"d":"477,-154v137,-3,225,-19,225,-143v0,-42,-14,-71,-43,-88v-30,-18,-91,-33,-182,-47v-135,-21,-232,-53,-289,-94v-55,-38,-82,-108,-82,-209v1,-273,255,-336,541,-299v101,13,144,16,217,33r-4,163v-153,-22,-273,-33,-362,-32v-117,1,-197,25,-197,131v0,38,15,65,45,82v35,19,99,34,189,49v138,22,233,55,285,96v52,41,77,110,77,209v-1,241,-152,325,-403,326v-125,0,-261,-27,-371,-43r8,-166v157,22,273,33,346,32","w":1003},"t":{"d":"479,23v-251,0,-295,-106,-295,-379r0,-492r-137,0r0,-174r137,0r0,-307r193,0r0,307r301,0r0,174r-301,0r0,447v8,163,-11,249,127,241r174,-10r10,168v-92,17,-162,25,-209,25","w":733},"u":{"d":"219,-88v-104,-164,-60,-640,-69,-934r194,0r0,530v0,133,12,221,35,268v58,119,315,56,407,9r0,-807r195,0r0,1022r-195,0r0,-59v-105,55,-201,82,-286,82v-139,0,-234,-37,-281,-111","w":1142},"v":{"d":"39,-1022r201,0r221,860r67,0r224,-860r198,0r-276,1022r-361,0","w":985},"w":{"d":"45,-1022r193,0r180,848r39,0r213,-830r204,0r213,830r39,0r181,-848r192,0r-227,1022r-320,0r-182,-743r-182,743r-318,0","w":1542},"x":{"d":"43,0r305,-510r-305,-512r209,0r221,371r223,-371r207,0r-305,512r305,510r-209,0r-221,-371r-221,371r-209,0","w":946},"y":{"d":"39,-1022r192,0r232,836r61,0r234,-836r192,0r-401,1466r-193,0r121,-444r-160,0","w":987},"z":{"d":"111,0r0,-174r526,-676r-526,0r0,-174r759,0r0,174r-526,676r526,0r0,174r-759,0","w":978},"{":{"d":"225,-278v18,-172,-50,-238,-196,-279r0,-164v153,-34,205,-101,196,-277r-10,-192v6,-269,131,-346,410,-360r2,188v-150,15,-201,39,-205,184v-1,50,14,185,14,254v0,183,-61,232,-205,283v141,46,203,114,205,291v0,6,-15,214,-14,239v5,141,59,178,205,189r-2,188v-271,-13,-405,-93,-410,-356v0,-34,4,-133,10,-188","w":647},"|":{"d":"432,332r0,-1827r199,0r0,1827r-199,0"},"}":{"d":"426,-340v-1,18,15,252,14,250v-5,262,-138,343,-409,356r-2,-188v157,-13,199,-43,204,-189v1,-2,-14,-219,-14,-239v3,-181,62,-243,205,-291v-144,-51,-201,-99,-205,-283v0,-18,15,-260,14,-254v-6,-147,-48,-169,-204,-184r2,-188v279,14,403,91,409,360v1,0,-15,239,-14,260v6,137,71,174,201,209r0,164v-130,43,-194,75,-201,217","w":647},"~":{"d":"733,-487v-58,5,-328,-99,-377,-99v-59,0,-129,31,-211,92r-18,-184v34,-38,150,-108,239,-108v59,0,322,98,375,98v52,0,119,-31,201,-92r16,184v-43,47,-132,101,-225,109"},"\u00a0":{"w":479},"\u00a1":{"d":"451,412r6,-940r196,0r6,940r-208,0xm451,-752r0,-270r208,0r0,270r-208,0"},"\u00a2":{"d":"430,-70v-267,-18,-366,-145,-367,-440v0,-281,122,-429,367,-444r0,-232r166,0r0,238r188,20r-6,170v-119,-8,-204,-12,-256,-12v-192,0,-260,60,-260,260v0,205,62,266,268,256r250,-12r6,170v-61,8,-125,15,-190,20r0,238r-166,0r0,-232","w":892},"\u00a3":{"d":"659,-1219v-139,0,-141,75,-147,230r0,121r338,0r0,170r-338,0r0,528r295,0r154,-33r30,166r-166,35r-669,2r0,-170r166,0r0,-528r-136,0r0,-170r136,0r0,-131v0,-272,87,-394,333,-394v64,0,152,10,265,29r0,166v-108,-13,-195,-21,-261,-21"},"\u00a4":{"d":"70,-176r145,-146v-69,-116,-67,-270,0,-387r-145,-147r133,-133r145,147v117,-70,269,-71,387,0r148,-147r133,133r-148,147v70,115,73,274,0,387r148,146r-133,133r-148,-145v-118,71,-268,70,-387,0r-145,145xm399,-659v-76,77,-76,209,0,286v73,74,214,75,287,0v76,-77,76,-210,0,-286v-74,-74,-213,-75,-287,0"},"\u00a5":{"d":"14,-1352r222,0r319,512r315,-512r224,0r-334,557r248,0r0,166r-342,0v-15,34,-11,88,-11,137r353,0r0,166r-353,0r0,326r-198,0r0,-326r-359,0r0,-166r359,0v0,-49,4,-103,-11,-137r-348,0r0,-166r252,0","w":1103},"\u00a6":{"d":"430,332r0,-807r199,0r0,807r-199,0xm430,-725r0,-811r199,0r0,811r-199,0"},"\u00a7":{"d":"942,-20v0,254,-136,356,-407,354v-97,-1,-279,-22,-367,-39r18,-158v155,19,267,29,336,29v155,0,233,-57,234,-172v0,-55,-19,-92,-56,-111v-37,-18,-116,-39,-237,-67v-213,-49,-325,-85,-336,-310v-4,-93,81,-227,123,-262v-60,-45,-90,-121,-90,-227v0,-228,136,-342,409,-342v89,0,203,14,344,41r-8,158v-155,-19,-263,-29,-323,-29v-156,1,-234,33,-234,170v0,53,20,91,60,113v41,23,117,45,229,67v118,24,201,56,250,96v48,39,71,107,71,203v0,95,-61,232,-92,277v51,42,76,112,76,209xm379,-690v-10,16,-60,121,-57,164v9,130,67,138,194,168v78,18,145,36,201,57v37,-51,82,-242,2,-289v-26,-38,-317,-85,-340,-100"},"\u00a8":{"d":"-37,-1268r0,-213r187,0r0,213r-187,0xm385,-1268r0,-213r184,0r0,213r-184,0","w":503},"\u00a9":{"d":"541,-344v-288,0,-523,-252,-523,-543v0,-300,227,-549,525,-549v299,0,524,252,524,547v0,300,-223,545,-526,545xm543,-1331v-234,0,-420,208,-420,442v0,240,184,438,418,438v238,0,424,-200,424,-438v0,-235,-185,-442,-422,-442xm547,-573v-199,0,-252,-110,-252,-322v0,-197,59,-308,252,-309v40,0,116,7,153,12r-2,158v-42,-9,-92,-15,-151,-15v-65,0,-98,51,-98,154v0,111,33,171,98,166r151,-12r0,151v-47,11,-97,17,-151,17"},"\u00aa":{"d":"426,-791v-87,1,-143,-74,-143,-163v0,-95,51,-149,153,-156r209,-14v4,-98,-8,-166,-106,-160r-213,14r-4,-63v101,-11,174,-16,217,-17v122,0,169,59,170,181r0,274v8,27,33,43,75,47r-4,57v-47,-3,-83,-18,-110,-45v-85,30,-166,45,-244,45xm350,-950v0,63,27,94,82,94v77,1,158,-20,213,-35r0,-174r-199,12v-66,2,-95,38,-96,103","w":1058},"\u00ab":{"d":"184,-430r0,-148r412,-307r0,199r-246,178r246,201r0,201xm702,-430r0,-148r410,-307r0,199r-244,178r244,201r0,201","w":1255},"\u00ac":{"d":"115,-537r0,-188r854,0r0,506r-189,0r0,-318r-665,0"},"\u00ad":{"d":"135,-481r0,-189r631,0r0,189r-631,0","w":899},"\u00ae":{"d":"543,-322v-318,0,-547,-252,-547,-566v0,-314,229,-568,547,-568v320,0,555,257,555,568v0,311,-241,566,-555,566xm542,-1356v-247,0,-444,216,-444,467v0,247,199,467,444,467v245,0,447,-225,447,-467v0,-248,-200,-467,-447,-467xm782,-1012v0,102,-27,161,-96,197r109,250r-156,0r-92,-232r-96,0r0,232r-146,0r0,-645r230,0v154,2,247,47,247,198xm449,-909r100,0v61,0,92,-32,92,-95v0,-61,-36,-92,-109,-92r-83,0r0,187"},"\u00af":{"d":"-47,-1290r0,-168r620,0r0,168r-620,0","w":503},"\u00b0":{"d":"500,-862v-175,0,-295,-121,-295,-293v0,-172,123,-295,295,-295v172,0,295,123,295,295v0,176,-118,293,-295,293xm500,-1335v-100,0,-176,76,-176,180v0,104,73,178,176,178v107,0,180,-72,180,-178v0,-106,-76,-180,-180,-180"},"\u00b1":{"d":"66,-102r0,-179r966,0r0,179r-966,0xm66,-639r0,-178r389,0r0,-258r180,0r0,258r397,0r0,178r-397,0r0,254r-180,0r0,-254r-389,0"},"\u00b2":{"d":"266,-1638v149,0,211,51,211,192v0,113,-50,155,-121,221r-108,101r235,0r0,145r-442,0r0,-139r170,-158v67,-59,100,-108,100,-149v0,-95,-178,-47,-260,-43r-6,-150v83,-13,157,-20,221,-20","w":540},"\u00b3":{"d":"422,-1315v69,24,89,60,90,156v0,134,-76,201,-227,201v-67,0,-146,-7,-236,-19r8,-141v85,11,152,16,201,16v59,0,88,-23,88,-68v0,-92,-129,-63,-215,-67r0,-133r131,0v34,0,68,-29,68,-68v0,-38,-27,-61,-82,-57r-182,14r-9,-137v81,-13,152,-20,213,-20v151,0,227,58,228,174v0,74,-25,124,-76,149","w":540},"\u00b4":{"d":"31,-1362r473,-190r67,180r-479,172","w":546},"\u00b5":{"d":"334,-459v11,213,8,305,192,305v78,0,193,-36,252,-61r0,-807r195,0r0,1022r-195,0r0,-59v-105,55,-201,82,-286,82v-69,0,-122,-15,-158,-46r0,498r-193,0r0,-1499r193,0r0,565"},"\u03bc":{"d":"334,-459v11,213,8,305,192,305v78,0,193,-36,252,-61r0,-807r195,0r0,1022r-195,0r0,-59v-105,55,-201,82,-286,82v-69,0,-122,-15,-158,-46r0,498r-193,0r0,-1499r193,0r0,565"},"\u00b6":{"d":"412,-664v-234,9,-396,-156,-396,-383v0,-225,164,-387,383,-387r676,0r0,154r-123,0r0,1280r-170,0r0,-1280r-200,0r0,1280r-170,0r0,-664"},"\u00b7":{"d":"135,-475r0,-270r211,0r0,270r-211,0","w":505},"\u00b8":{"d":"920,92v159,9,228,19,235,168v10,207,-188,225,-383,184r6,-118v65,3,106,4,123,4v57,0,86,-23,86,-70v0,-66,-88,-63,-160,-61r0,-201r93,0r0,94","w":1703},"\u00b9":{"d":"51,-1470r211,-148r148,0r0,639r-160,0r0,-463r-125,84","w":540},"\u00ba":{"d":"530,-1350v173,0,232,100,232,277v0,189,-77,282,-232,282v-157,0,-235,-93,-235,-282v0,-184,78,-277,235,-277xm530,-1284v-131,0,-165,68,-165,211v0,148,33,217,165,217v132,0,162,-72,162,-217v0,-146,-30,-211,-162,-211","w":1075},"\u00bb":{"d":"145,-106r0,-201r244,-201r-244,-178r0,-199r410,307r0,148xm662,-106r0,-201r245,-201r-245,-178r0,-199r411,307r0,148","w":1255},"\u00bf":{"d":"455,436v-289,-2,-441,-91,-441,-373v0,-208,125,-311,246,-407v52,-41,131,-103,135,-186r0,-78r205,0v2,91,0,162,-39,221v-79,121,-217,180,-297,301v-25,38,-39,80,-39,127v0,159,68,195,238,195v71,0,175,-15,313,-46r25,189v-154,38,-269,57,-346,57xm393,-752r0,-270r209,0r0,270r-209,0","w":788},"\u00c0":{"d":"57,0r365,-1421r407,0r361,1419r-201,0r-92,-317r-553,0r-88,319r-199,0xm319,-1747r66,-182r473,192r-61,160xm387,-510r469,0r-182,-727r-101,0","w":1234},"\u00c1":{"d":"57,0r365,-1421r407,0r361,1419r-201,0r-92,-317r-553,0r-88,319r-199,0xm354,-1772r473,-190r68,180r-479,172xm387,-510r469,0r-182,-727r-101,0","w":1234},"\u00c2":{"d":"57,0r365,-1421r407,0r361,1419r-201,0r-92,-317r-553,0r-88,319r-199,0xm281,-1614r260,-319r155,0r262,319r-210,0r-127,-158r-129,158r-211,0xm387,-510r469,0r-182,-727r-101,0","w":1234},"\u00c3":{"d":"57,0r365,-1421r409,0r359,1419r-199,0r-94,-317r-553,0r-86,319r-201,0xm766,-1645v-50,7,-265,-102,-305,-98v-56,5,-109,55,-156,86r-43,-147v47,-45,122,-107,199,-117v62,-8,262,97,301,96v33,0,83,-27,151,-82r43,150v-32,40,-121,102,-190,112xm387,-510r471,0r-184,-727r-101,0","w":1234},"\u00c4":{"d":"57,0r365,-1421r409,0r359,1419r-199,0r-94,-317r-553,0r-86,319r-201,0xm356,-1677r0,-213r187,0r0,213r-187,0xm387,-510r471,0r-184,-727r-101,0xm778,-1677r0,-213r187,0r0,213r-187,0","w":1234},"\u00c5":{"d":"625,-1739v148,0,264,94,264,232v0,53,-16,100,-47,139r348,1366r-201,0r-92,-317r-553,0r-88,319r-199,0r351,-1368v-30,-38,-45,-84,-46,-139v-2,-147,115,-232,263,-232xm387,-510r469,0r-182,-727r-101,0xm625,-1599v-65,0,-109,32,-109,92v0,47,24,75,72,86r76,0v48,-11,71,-39,71,-86v0,-59,-49,-92,-110,-92","w":1234},"\u00c6":{"d":"88,0r432,-1421r1231,0r0,190r-678,0r0,412r555,0r0,188r-555,0r0,441r678,0r0,190r-874,0r0,-319r-488,0r-98,319r-203,0xm440,-510r437,0r2,-721r-217,0","w":1837},"\u00c7":{"d":"639,92v159,9,228,19,235,168v10,207,-188,225,-382,184r6,-118v65,3,106,4,123,4v57,0,86,-23,86,-70v0,-66,-88,-63,-160,-61r0,-181v-173,-12,-291,-76,-354,-192v-64,-118,-97,-296,-97,-535v0,-262,39,-449,113,-563v99,-154,331,-197,592,-158v64,10,116,17,155,25r60,12r-6,179v-159,-23,-280,-35,-365,-35v-138,0,-225,43,-275,119v-85,129,-85,709,1,839v50,76,138,119,278,119v75,0,196,-12,361,-35r6,180v-134,29,-260,45,-377,50r0,69","w":1097},"\u00c8":{"d":"170,0r0,-1421r874,0r0,190r-677,0r0,426r555,0r0,187r-555,0r0,428r677,0r0,190r-874,0xm332,-1747r65,-182r473,192r-61,160","w":1146},"\u00c9":{"d":"176,0r0,-1421r875,0r0,190r-678,0r0,426r555,0r0,187r-555,0r0,428r678,0r0,190r-875,0xm362,-1772r474,-190r67,180r-479,172","w":1169},"\u00ca":{"d":"176,0r0,-1421r875,0r0,190r-678,0r0,426r555,0r0,187r-555,0r0,428r678,0r0,190r-875,0xm293,-1614r260,-319r156,0r262,319r-211,0r-127,-158r-129,158r-211,0","w":1169},"\u00cb":{"d":"176,0r0,-1421r875,0r0,190r-678,0r0,426r555,0r0,187r-555,0r0,428r678,0r0,190r-875,0xm326,-1677r0,-213r186,0r0,213r-186,0xm748,-1677r0,-213r184,0r0,213r-184,0","w":1169},"\u00cc":{"d":"-57,-1747r65,-182r473,192r-61,160xm164,0r0,-1421r198,0r0,1421r-198,0","w":524},"\u00cd":{"d":"10,-1751r473,-191r68,181r-479,172xm164,0r0,-1421r198,0r0,1421r-198,0","w":524},"\u00ce":{"d":"-94,-1628r270,-285r176,0r271,285r-222,0r-135,-131r-135,131r-225,0xm164,0r0,-1421r198,0r0,1421r-198,0","w":524},"\u00cf":{"d":"-43,-1663r0,-213r184,0r0,213r-184,0xm164,0r0,-1421r198,0r0,1421r-198,0xm389,-1663r0,-213r186,0r0,213r-186,0","w":524},"\u00d0":{"d":"662,-1421v432,2,546,245,546,686v0,228,-27,385,-106,528v-76,139,-223,207,-440,207r-492,0r0,-608r-129,0r0,-191r129,0r0,-622r492,0xm367,-188v164,-7,361,21,469,-41v93,-54,139,-181,155,-293v27,-180,11,-479,-57,-586v-51,-80,-137,-125,-272,-125r-295,0r0,434r297,0r0,191r-297,0r0,420","w":1302},"\u00d1":{"d":"158,0r0,-1421r336,0r507,1179r39,0r0,-1179r201,0r0,1421r-328,0r-518,-1180r-39,0r0,1180r-198,0xm844,-1645v-48,7,-266,-102,-303,-98v-56,5,-109,55,-156,86r-43,-147v44,-41,123,-107,199,-117v63,-8,259,97,301,96v30,0,80,-27,151,-82r43,150v-35,44,-123,102,-192,112","w":1404},"\u00d2":{"d":"672,23v-452,0,-566,-251,-566,-725v0,-250,42,-436,125,-558v83,-123,231,-184,441,-184v210,0,357,61,440,184v85,124,127,310,127,558v0,253,-42,436,-125,552v-82,114,-229,173,-442,173xm672,-1251v-311,0,-361,207,-361,549v0,190,25,325,74,407v51,83,146,125,287,125v142,0,233,-43,286,-123v95,-143,94,-681,-2,-825v-57,-86,-146,-133,-284,-133xm381,-1747r65,-182r474,192r-62,160","w":1341},"\u00d3":{"d":"672,23v-452,0,-566,-251,-566,-725v0,-250,42,-436,125,-558v83,-123,231,-184,441,-184v210,0,357,61,440,184v85,124,127,310,127,558v0,253,-42,436,-125,552v-82,114,-229,173,-442,173xm672,-1251v-311,0,-361,207,-361,549v0,190,25,325,74,407v51,83,146,125,287,125v142,0,233,-43,286,-123v95,-143,94,-681,-2,-825v-57,-86,-146,-133,-284,-133xm383,-1772r473,-190r68,180r-480,172","w":1341},"\u00d4":{"d":"672,23v-452,0,-566,-251,-566,-725v0,-250,42,-436,125,-558v83,-123,231,-184,441,-184v210,0,357,61,440,184v85,124,127,310,127,558v0,253,-42,436,-125,552v-82,114,-229,173,-442,173xm672,-1251v-311,0,-361,207,-361,549v0,190,25,325,74,407v51,83,146,125,287,125v142,0,233,-43,286,-123v95,-143,94,-681,-2,-825v-57,-86,-146,-133,-284,-133xm330,-1614r260,-319r155,0r263,319r-211,0r-127,-158r-129,158r-211,0","w":1341},"\u00d5":{"d":"672,23v-456,0,-566,-252,-566,-725v0,-250,42,-436,125,-558v83,-123,231,-184,441,-184v210,0,356,62,440,184v83,122,125,307,125,558v0,253,-42,436,-125,552v-82,114,-229,173,-440,173xm672,-1251v-311,0,-361,207,-361,549v0,190,25,325,74,407v51,83,146,125,287,125v142,0,233,-43,286,-123v95,-143,94,-681,-2,-825v-57,-86,-146,-133,-284,-133xm815,-1645v-48,7,-265,-102,-303,-98v-57,6,-108,55,-156,86r-43,-147v44,-41,123,-107,199,-117v63,-8,259,97,301,96v30,0,81,-27,152,-82r43,150v-35,46,-126,102,-193,112","w":1341},"\u00d6":{"d":"672,23v-456,0,-566,-252,-566,-725v0,-250,42,-436,125,-558v83,-123,231,-184,441,-184v210,0,356,62,440,184v83,122,125,307,125,558v0,253,-42,436,-125,552v-82,114,-229,173,-440,173xm672,-1251v-311,0,-361,207,-361,549v0,190,25,325,74,407v51,83,146,125,287,125v142,0,233,-43,286,-123v95,-143,94,-681,-2,-825v-57,-86,-146,-133,-284,-133xm360,-1677r0,-213r187,0r0,213r-187,0xm780,-1677r0,-213r187,0r0,213r-187,0","w":1341},"\u00d7":{"d":"360,-184r377,-387r-377,-383r129,-127r373,385r375,-385r129,127r-377,383r379,387r-129,125r-377,-383r-375,383","w":1331},"\u00d8":{"d":"98,-702v0,-250,42,-436,125,-558v83,-123,230,-184,441,-184v86,0,162,11,229,33r113,-238r180,68r-127,270v115,111,172,314,172,609v0,254,-41,438,-123,553v-82,115,-230,172,-444,172v-78,0,-150,-9,-215,-27r-119,254r-176,-78r125,-266v-121,-103,-181,-306,-181,-608xm664,-1251v-311,8,-361,207,-361,549v0,193,24,327,72,403r434,-930v-45,-15,-94,-23,-145,-22xm532,-184v34,9,78,14,132,14v142,0,233,-44,286,-123v92,-137,98,-658,8,-805","w":1327},"\u00d9":{"d":"651,18v-328,0,-504,-134,-504,-460r0,-979r199,0r0,979v0,196,110,266,305,266v198,0,312,-70,312,-266r0,-979r200,0r0,979v1,334,-181,460,-512,460xm182,-1747r66,-182r473,192r-62,160","w":1308},"\u00da":{"d":"658,18v-330,0,-504,-134,-504,-460r0,-979r198,0r0,979v-1,199,108,266,305,266v198,0,312,-70,312,-266r0,-979r200,0r0,979v1,334,-181,460,-511,460xm375,-1772r473,-190r67,180r-479,172","w":1312},"\u00db":{"d":"658,18v-330,0,-504,-134,-504,-460r0,-979r198,0r0,979v-1,199,108,266,305,266v198,0,312,-70,312,-266r0,-979r200,0r0,979v1,334,-181,460,-511,460xm322,-1614r260,-319r155,0r262,319r-211,0r-126,-158r-130,158r-210,0","w":1312},"\u00dc":{"d":"658,18v-330,0,-504,-134,-504,-460r0,-979r198,0r0,979v-1,199,108,266,305,266v198,0,312,-70,312,-266r0,-979r200,0r0,979v1,334,-181,460,-511,460xm401,-1677r0,-213r187,0r0,213r-187,0xm823,-1677r0,-213r185,0r0,213r-185,0","w":1312},"\u00dd":{"d":"14,-1421r222,0r319,590r315,-590r224,0r-439,813r0,608r-198,0r0,-608xm246,-1772r473,-190r67,180r-479,172","w":1103},"\u00de":{"d":"1098,-735v1,317,-157,504,-471,504r-316,0r0,231r-200,0r0,-1421r200,0r0,221r316,0v314,0,471,155,471,465xm893,-735v0,-189,-81,-277,-266,-277r-316,0r0,588r316,0v177,0,266,-104,266,-311","w":1153},"\u00df":{"d":"590,-1300v-160,0,-232,50,-232,213r0,1087r-192,0r0,-1102v3,-283,134,-377,424,-377v274,0,422,55,422,301v0,145,-58,216,-168,263v-49,21,-84,38,-105,53v-38,28,-29,69,9,98v19,15,70,43,151,86v108,57,178,102,209,133v35,35,53,84,53,146v0,344,-132,417,-487,417v-69,0,-164,-23,-209,-32r8,-156v98,5,165,8,201,8v204,-3,287,-35,287,-213v0,-25,-14,-48,-41,-69v-21,-17,-77,-48,-170,-93v-91,-45,-151,-88,-186,-123v-60,-61,-67,-207,-11,-270v29,-33,72,-59,127,-84v88,-40,131,-54,131,-151v0,-120,-81,-135,-221,-135","w":1251},"\u00e0":{"d":"358,23v-189,1,-288,-129,-286,-322v2,-218,114,-288,327,-307r287,-25r0,-74v0,-104,-50,-156,-151,-155v-117,0,-287,14,-394,24r-8,-168v175,-27,312,-41,412,-40v230,2,336,103,336,337r0,463v2,69,40,90,100,99r-6,165v-130,-2,-190,-11,-260,-73v-117,51,-236,76,-357,76xm215,-1380r64,-172r473,192r-58,152xm268,-303v0,105,42,158,125,158v89,0,186,-17,293,-52r0,-282r-264,20v-103,9,-154,61,-154,156","w":1081},"\u00e1":{"d":"358,23v-189,1,-288,-129,-286,-322v2,-218,114,-288,327,-307r287,-25r0,-74v0,-104,-50,-156,-151,-155v-117,0,-287,14,-394,24r-8,-168v175,-27,312,-41,412,-40v230,2,336,103,336,337r0,463v2,69,40,90,100,99r-6,165v-130,-2,-190,-11,-260,-73v-117,51,-236,76,-357,76xm221,-1362r473,-190r68,180r-479,172xm268,-303v0,105,42,158,125,158v89,0,186,-17,293,-52r0,-282r-264,20v-103,9,-154,61,-154,156","w":1081},"\u00e2":{"d":"358,23v-189,1,-288,-129,-286,-322v2,-218,114,-288,327,-307r287,-25r0,-74v0,-104,-50,-156,-151,-155v-117,0,-287,14,-394,24r-8,-168v175,-27,312,-41,412,-40v230,2,336,103,336,337r0,463v2,69,40,90,100,99r-6,165v-130,-2,-190,-11,-260,-73v-117,51,-236,76,-357,76xm160,-1204r260,-320r155,0r263,320r-211,0r-127,-158r-129,158r-211,0xm268,-303v0,105,42,158,125,158v89,0,186,-17,293,-52r0,-282r-264,20v-103,9,-154,61,-154,156","w":1081},"\u00e3":{"d":"358,23v-191,-1,-288,-122,-286,-322v2,-222,112,-289,325,-307r289,-25r0,-74v0,-104,-50,-156,-151,-155v-117,0,-287,14,-394,24r-8,-168v175,-27,311,-41,410,-40v231,2,337,101,336,337r0,463v2,69,40,90,102,99r-8,165v-128,-2,-188,-12,-258,-73v-119,51,-238,76,-357,76xm645,-1235v-48,7,-265,-104,-303,-98v-52,8,-128,58,-156,86r-43,-148v38,-39,123,-106,199,-116v56,-7,256,96,301,96v30,0,81,-27,152,-82r43,149v-40,50,-121,103,-193,113xm266,-303v0,105,42,158,125,158v90,0,188,-17,295,-52r0,-282r-264,20v-104,9,-156,61,-156,156","w":1081},"\u00e4":{"d":"358,23v-191,-1,-288,-122,-286,-322v2,-222,112,-289,325,-307r289,-25r0,-74v0,-104,-50,-156,-151,-155v-117,0,-287,14,-394,24r-8,-168v175,-27,311,-41,410,-40v231,2,337,101,336,337r0,463v2,69,40,90,102,99r-8,165v-128,-2,-188,-12,-258,-73v-119,51,-238,76,-357,76xm209,-1268r0,-213r186,0r0,213r-186,0xm266,-303v0,105,42,158,125,158v90,0,188,-17,295,-52r0,-282r-264,20v-104,9,-156,61,-156,156xm631,-1268r0,-213r184,0r0,213r-184,0","w":1081},"\u00e5":{"d":"358,23v-189,1,-288,-129,-286,-322v2,-218,114,-288,327,-307r287,-25r0,-74v0,-104,-50,-156,-151,-155v-117,0,-287,14,-394,24r-8,-168v175,-27,312,-41,412,-40v230,2,336,103,336,337r0,463v2,69,40,90,100,99r-6,165v-130,-2,-190,-11,-260,-73v-117,51,-236,76,-357,76xm268,-303v0,105,42,158,125,158v89,0,186,-17,293,-52r0,-282r-264,20v-103,9,-154,61,-154,156xm526,-1096v-124,0,-223,-98,-223,-221v0,-121,104,-221,223,-221v116,0,222,105,222,221v0,118,-100,221,-222,221xm528,-1405v-53,0,-90,36,-90,88v0,51,41,90,90,90v44,0,86,-44,86,-90v0,-47,-39,-88,-86,-88","w":1081},"\u00e6":{"d":"395,23v-191,-2,-288,-122,-286,-322v3,-242,130,-291,366,-311r250,-21r0,-74v0,-99,-54,-159,-154,-155r-325,14r-66,6r-8,-170v175,-23,311,-34,410,-34v134,0,225,41,272,122v67,-82,168,-123,305,-122v298,3,422,161,422,473r-12,141r-651,0v5,178,64,276,247,274v105,0,231,-6,377,-18r4,154v-155,29,-291,43,-407,43v-137,0,-238,-36,-305,-107v-124,61,-283,109,-439,107xm305,-303v0,105,42,158,125,158v79,0,185,-20,318,-60v-18,-65,-27,-157,-27,-274r-260,20v-105,8,-156,48,-156,156xm1389,-582v-2,-198,-48,-290,-230,-290v-177,0,-241,100,-241,290r471,0","w":1693},"\u00e7":{"d":"449,18v-298,-31,-357,-196,-357,-544v0,-344,98,-518,428,-518v96,0,233,22,295,32r-8,168v-109,-12,-189,-18,-240,-18v-233,0,-278,92,-278,336v0,272,27,356,280,364r240,-16r6,168v-123,21,-214,32,-274,33r0,69v159,9,228,19,235,168v10,207,-188,225,-383,184r6,-118v65,3,106,4,123,4v57,0,86,-23,86,-70v0,-66,-87,-63,-159,-61r0,-181","w":890},"\u00e8":{"d":"508,23v-326,0,-418,-184,-418,-527v0,-361,145,-542,436,-540v300,2,424,160,424,473r-12,141r-651,0v1,185,66,274,248,274v105,0,231,-6,376,-18r4,154v-155,29,-291,43,-407,43xm205,-1356r63,-172r473,193r-57,151xm758,-582v-2,-199,-48,-290,-232,-290v-179,0,-236,98,-241,290r473,0","w":1024},"\u00e9":{"d":"508,23v-326,0,-418,-184,-418,-527v0,-361,145,-542,436,-540v300,2,424,160,424,473r-12,141r-651,0v1,185,66,274,248,274v105,0,231,-6,376,-18r4,154v-155,29,-291,43,-407,43xm279,-1362r473,-190r67,180r-479,172xm758,-582v-2,-199,-48,-290,-232,-290v-179,0,-236,98,-241,290r473,0","w":1024},"\u00ea":{"d":"508,23v-326,0,-418,-184,-418,-527v0,-361,145,-542,436,-540v300,2,424,160,424,473r-12,141r-651,0v1,185,66,274,248,274v105,0,231,-6,376,-18r4,154v-155,29,-291,43,-407,43xm201,-1204r260,-320r155,0r263,320r-211,0r-127,-158r-129,158r-211,0xm758,-582v-2,-199,-48,-290,-232,-290v-179,0,-236,98,-241,290r473,0","w":1024},"\u00eb":{"d":"508,23v-326,0,-418,-184,-418,-527v0,-361,145,-542,436,-540v300,2,424,160,424,473r-12,141r-651,0v3,181,63,274,248,274v105,0,231,-6,376,-18r4,154v-155,29,-291,43,-407,43xm221,-1268r0,-213r185,0r0,213r-185,0xm758,-582v-2,-199,-48,-290,-232,-290v-179,0,-236,98,-241,290r473,0xm641,-1268r0,-213r186,0r0,213r-186,0","w":1024},"\u00ec":{"d":"-12,-1380r63,-172r473,192r-57,152xm174,0r0,-1022r195,0r0,1022r-195,0","w":532},"\u00ed":{"d":"45,-1362r473,-190r68,180r-480,172xm174,0r0,-1022r195,0r0,1022r-195,0","w":532},"\u00ee":{"d":"-76,-1204r260,-320r156,0r262,320r-211,0r-127,-158r-129,158r-211,0xm174,0r0,-1022r195,0r0,1022r-195,0","w":540},"\u00ef":{"d":"-41,-1268r0,-213r186,0r0,213r-186,0xm174,0r0,-1022r195,0r0,1022r-195,0xm381,-1268r0,-213r186,0r0,213r-186,0","w":532},"\u00f0":{"d":"535,18v-299,1,-465,-178,-465,-481v0,-306,254,-481,579,-407v51,12,118,29,168,49v-19,-198,-117,-292,-282,-371r-218,162r-84,-115r144,-104v-71,-21,-139,-38,-205,-51r33,-166v131,21,247,49,346,86r201,-148r82,115r-136,100v217,123,326,321,326,596v0,258,-38,445,-114,561v-76,116,-202,174,-375,174xm516,-715v-145,0,-241,106,-240,252v1,177,81,303,259,301v95,0,167,-37,213,-112v45,-72,67,-198,69,-375v-104,-44,-204,-66,-301,-66"},"\u00f1":{"d":"666,-1044v311,8,352,168,352,509r0,535r-195,0r0,-532v0,-123,-13,-209,-37,-258v-24,-49,-75,-74,-153,-74v-77,0,-164,20,-262,61r0,803r-193,0r0,-1022r193,0r0,59v111,-55,209,-83,295,-81xm754,-1235v-47,11,-266,-103,-303,-98v-51,7,-123,57,-156,86r-43,-148v38,-39,121,-106,199,-116v59,-7,254,96,301,96v30,0,80,-27,151,-82r43,149v-30,42,-122,111,-192,113","w":1173},"\u00f2":{"d":"543,-1044v330,0,446,188,446,524v0,354,-94,542,-446,542v-353,0,-451,-187,-451,-542v0,-348,113,-524,451,-524xm272,-1380r64,-172r473,192r-57,152xm543,-870v-214,0,-254,118,-254,350v0,248,25,366,253,366v224,0,251,-128,251,-366v0,-222,-50,-350,-250,-350","w":1079},"\u00f3":{"d":"543,-1044v330,0,446,188,446,524v0,354,-94,542,-446,542v-353,0,-451,-187,-451,-542v0,-348,113,-524,451,-524xm262,-1362r473,-190r68,180r-479,172xm543,-870v-214,0,-254,118,-254,350v0,248,25,366,253,366v224,0,251,-128,251,-366v0,-222,-50,-350,-250,-350","w":1079},"\u00f4":{"d":"543,-1044v330,0,446,188,446,524v0,354,-94,542,-446,542v-353,0,-451,-187,-451,-542v0,-348,113,-524,451,-524xm195,-1204r260,-320r155,0r262,320r-210,0r-127,-158r-129,158r-211,0xm543,-870v-214,0,-254,118,-254,350v0,248,25,366,253,366v224,0,251,-128,251,-366v0,-222,-50,-350,-250,-350","w":1079},"\u00f5":{"d":"543,-1044v330,0,446,188,446,524v0,354,-94,542,-446,542v-353,0,-451,-187,-451,-542v0,-348,113,-524,451,-524xm690,-1235v-47,11,-265,-104,-303,-98v-52,8,-128,58,-156,86r-43,-148v38,-39,123,-106,199,-116v56,-7,256,96,301,96v33,0,83,-27,152,-82r43,149v-31,41,-122,111,-193,113xm543,-870v-214,0,-254,118,-254,350v0,248,25,366,253,366v224,0,251,-128,251,-366v0,-222,-50,-350,-250,-350","w":1079},"\u00f6":{"d":"543,-1044v330,0,446,188,446,524v0,354,-94,542,-446,542v-353,0,-451,-187,-451,-542v0,-348,113,-524,451,-524xm233,-1268r0,-213r185,0r0,213r-185,0xm543,-870v-214,0,-254,118,-254,350v0,248,25,366,253,366v224,0,251,-128,251,-366v0,-222,-50,-350,-250,-350xm653,-1268r0,-213r187,0r0,213r-187,0","w":1079},"\u00f7":{"d":"160,-678r0,-215r114,0r0,-65r437,0r0,65r104,0r0,215r-655,0xm395,-170r0,-227r195,0r0,227r-195,0"},"\u00f8":{"d":"989,-520v0,354,-94,540,-446,543v-51,0,-100,-5,-148,-15r-88,217r-123,-45r90,-217v-121,-72,-182,-233,-182,-483v0,-348,113,-521,451,-524v55,0,100,5,137,14r86,-211r123,45r-86,213v124,75,186,230,186,463xm543,-870v-214,5,-254,118,-254,350v0,153,22,254,67,305r258,-647v-15,-5,-39,-8,-71,-8xm543,-154v225,-4,250,-127,250,-366v0,-134,-23,-228,-70,-283r-262,643v25,4,52,6,82,6","w":1079},"\u00f9":{"d":"219,-88v-104,-164,-60,-640,-69,-934r194,0r0,530v0,133,12,221,35,268v58,119,315,56,407,9r0,-807r195,0r0,1022r-195,0r0,-59v-105,55,-201,82,-286,82v-139,0,-234,-37,-281,-111xm227,-1370r72,-180r471,190r-70,172","w":1142},"\u00fa":{"d":"219,-88v-104,-164,-60,-640,-69,-934r194,0r0,530v0,133,12,221,35,268v58,119,315,56,407,9r0,-807r195,0r0,1022r-195,0r0,-59v-105,55,-201,82,-286,82v-139,0,-234,-37,-281,-111xm291,-1362r473,-190r67,180r-479,172","w":1142},"\u00fb":{"d":"219,-88v-104,-164,-60,-640,-69,-934r194,0r0,530v0,133,12,221,35,268v58,119,315,56,407,9r0,-807r195,0r0,1022r-195,0r0,-59v-105,55,-201,82,-286,82v-139,0,-234,-37,-281,-111xm197,-1204r260,-320r155,0r262,320r-210,0r-127,-158r-129,158r-211,0","w":1142},"\u00fc":{"d":"219,-88v-104,-164,-60,-640,-69,-934r194,0r0,530v0,133,12,221,35,268v58,119,315,56,407,9r0,-807r195,0r0,1022r-195,0r0,-59v-105,55,-201,82,-286,82v-139,0,-234,-37,-281,-111xm274,-1268r0,-213r187,0r0,213r-187,0xm696,-1268r0,-213r185,0r0,213r-185,0","w":1142},"\u00fd":{"d":"25,-1022r192,0r232,836r61,0r233,-836r193,0r-401,1466r-193,0r121,-444r-160,0xm256,-1362r473,-190r68,180r-480,172","w":980},"\u00fe":{"d":"567,23r-168,-9r0,432r-194,0r0,-1904r194,0r0,475v98,-41,189,-61,273,-61v313,0,387,170,387,518v0,405,-99,542,-492,549xm862,-526v0,-215,-30,-340,-213,-340v-78,0,-207,28,-250,43r0,659v89,7,144,10,166,10v258,-3,297,-108,297,-372","w":1099},"\u00ff":{"d":"39,-1022r192,0r232,836r61,0r234,-836r192,0r-401,1466r-193,0r121,-444r-160,0xm195,-1268r0,-213r186,0r0,213r-186,0xm616,-1268r0,-213r185,0r0,213r-185,0","w":987}}});
